{
    "name": "Seq_model",
    "layers": [
        {
            "name": "LSTM 1",
            "n_input": 4,
            "n_ouput": 4,
            "n_hiden": 4,
            "timestep": 1,
            "Uf": [
                [
                    -0.4374103049245856,
                    -0.8484352035487321,
                    0.14022616200318697,
                    0.9185947143554583
                ],
                [
                    -0.0102270437096748,
                    -0.27396135990730885,
                    0.506353006982642,
                    -0.03589780906745671
                ],
                [
                    -0.12169162240690475,
                    -0.9439973245906306,
                    -0.8535646342903124,
                    0.9645278724360955
                ],
                [
                    0.06329749838207953,
                    1.5974113950765498,
                    0.46127330004272843,
                    1.2221587293803022
                ]
            ],
            "Ui": [
                [
                    1.6775449295111995,
                    0.34507643842606645,
                    0.0734149323574699,
                    -0.39861977949843125
                ],
                [
                    0.1357744767722834,
                    -0.12845500006621063,
                    1.158789301351448,
                    0.9231791673315031
                ],
                [
                    0.67485780960328,
                    0.15401168971851198,
                    0.11967969073539984,
                    1.8575296532967303
                ],
                [
                    1.4673362096589413,
                    -0.013587607785358629,
                    -1.4013479926561025,
                    1.881884211166708
                ]
            ],
            "Uc": [
                [
                    0.6942003762429456,
                    1.6957208118062443,
                    -0.8198842603780857,
                    1.8046449228460286
                ],
                [
                    0.7924116460213644,
                    -0.5768921583055036,
                    0.3256120386776361,
                    0.9279029859357997
                ],
                [
                    0.0015560968972449787,
                    0.7974534369080198,
                    -0.43733639311085204,
                    0.8813546749694057
                ],
                [
                    -0.5975438983161431,
                    -1.0052896797494293,
                    3.2542132539774844,
                    0.5962080886256713
                ]
            ],
            "Uo": [
                [
                    -0.11746066281687216,
                    0.5655072891868556,
                    -0.05353349574774199,
                    -0.9557979675091666
                ],
                [
                    -1.413890426112416,
                    -0.8293336600152179,
                    0.2984887577443538,
                    -0.04967831612454239
                ],
                [
                    0.09104829110941981,
                    0.1509021377472212,
                    1.2845639414474956,
                    0.540965183757759
                ],
                [
                    -0.3725604449488014,
                    -0.4146130010253761,
                    1.853474568225723,
                    0.41002783667756754
                ]
            ],
            "Wf": [
                [
                    0.07960341586587905,
                    -1.2305464448699501,
                    -0.9708719066147614,
                    -1.0190462979219685
                ],
                [
                    -1.0495119942206101,
                    -1.0355474121644574,
                    1.541864556685999,
                    -2.0741080902387967
                ],
                [
                    0.09091047693738659,
                    -0.14241728175379625,
                    -0.7270743011352546,
                    -0.014876870693667402
                ],
                [
                    0.6918013906307411,
                    -0.3941057480976953,
                    0.5279489375266196,
                    -0.8489178138108326
                ]
            ],
            "Wi": [
                [
                    0.2456364756329367,
                    1.0372934097001576,
                    -1.960081905148508,
                    1.293480104001196
                ],
                [
                    0.19466542975053083,
                    -0.6159546941101955,
                    -2.4495397162412327,
                    1.1129915167793842
                ],
                [
                    -0.9492114455870723,
                    0.04695341715673117,
                    0.21173750258147878,
                    1.4018948351060565
                ],
                [
                    1.7679688424434583,
                    2.459597012098031,
                    1.705291197830057,
                    0.16366567061770051
                ]
            ],
            "Wc": [
                [
                    -0.10890696349785597,
                    -0.6190609061614061,
                    -1.7629063959499027,
                    1.1558612626687255
                ],
                [
                    -0.2117138786881372,
                    0.7016796780720378,
                    1.1852059740849905,
                    0.5148340512237394
                ],
                [
                    0.34432019657043494,
                    2.2147544365957383,
                    0.5720590316725729,
                    0.7465482528781798
                ],
                [
                    0.07199079418870791,
                    1.4479226550301314,
                    -0.651348438872634,
                    0.7829339738062364
                ]
            ],
            "Wo": [
                [
                    -0.12969275643142686,
                    -2.736714398952808,
                    -1.7927905595683358,
                    0.6191718630937896
                ],
                [
                    -1.085366453825953,
                    -1.1476390733463862,
                    -0.019183834831344445,
                    -0.11715473086639074
                ],
                [
                    0.1581351023079529,
                    0.8830164496516316,
                    1.1639075138929562,
                    -0.741582537290262
                ],
                [
                    1.3385962209859525,
                    1.1182863802579313,
                    1.0121297880615958,
                    -1.5345474504358851
                ]
            ],
            "Bf": [
                0.6484920111351403,
                -1.6949345063262846,
                -0.6304929331231776,
                0.7527805400398063
            ],
            "Bi": [
                0.756656395817279,
                -2.1073189569321946,
                -0.563373579368898,
                0.37048287944681224
            ],
            "Bc": [
                0.035114917529828586,
                -0.8936381094121565,
                0.10051755733688604,
                0.8531202318936647
            ],
            "Bo": [
                1.4022355405675557,
                -0.22837891669522228,
                1.2023081486310223,
                -0.8481269752331572
            ],
            "V": [
                [
                    0.8232158172808195,
                    0.6188529092500777,
                    -0.7787696640073569,
                    1.0856999089926207
                ],
                [
                    -1.0700280619362732,
                    -0.3939748440655357,
                    -0.016989766270324433,
                    0.08487070838603225
                ],
                [
                    1.250139238774157,
                    0.09351103180938981,
                    -0.7295756259491009,
                    0.5280357330160542
                ],
                [
                    0.8046176290080527,
                    -0.260994758130526,
                    -0.5018946362966136,
                    1.2913761356957807
                ]
            ],
            "bias": [
                0.3499230759733631,
                0.6042857298000445,
                -0.08030040982208758,
                -0.3137857704400964
            ]
        },
        {
            "name": "Dense",
            "n_input": 1,
            "n_ouput": 1,
            "activation": "sigmoid",
            "weights": [
                [
                    -0.6018449665096978
                ]
            ],
            "biases": [
                -1.449470904880116
            ]
        }
    ]
}