{
    "name": "Seq_model",
    "layers": [
        {
            "name": "LSTM",
            "n_input": 4,
            "n_ouput": 4,
            "n_hiden": 4,
            "timestep": 1,
            "Uf": [
                [
                    0.8954541301900409,
                    -1.7067127046213455,
                    0.22581373109046846,
                    0.11488465088446073
                ],
                [
                    -0.8802594949734617,
                    1.1339953680474941,
                    1.2837346491316208,
                    -0.658678769889394
                ],
                [
                    0.6377068377810191,
                    0.6818776500171223,
                    1.4837725831134598,
                    -0.20350853264505187
                ],
                [
                    0.5710505635920062,
                    0.26611884705551375,
                    0.967750312033742,
                    -1.230467700481857
                ]
            ],
            "Ui": [
                [
                    1.3128636746835025,
                    -0.7777144276007866,
                    1.1500577462934716,
                    -1.1416377644127773
                ],
                [
                    -0.8676350705368763,
                    0.05755424723587507,
                    -1.5136096298966886,
                    -0.3107315620030181
                ],
                [
                    -1.065542860393897,
                    -1.0388513530667136,
                    -0.3944069111921626,
                    -0.17055365267879166
                ],
                [
                    -2.287579143610753,
                    -0.8221959790455098,
                    0.42344221630654794,
                    -0.5629496269299304
                ]
            ],
            "Uc": [
                [
                    0.20990886650906163,
                    -2.166279779684587,
                    -0.31188986915851263,
                    -1.5285363531805434
                ],
                [
                    0.7036756984648379,
                    -0.048425199510814455,
                    -0.4948605219237502,
                    1.4947584800878908
                ],
                [
                    0.42959948072061527,
                    0.3151814662700094,
                    -0.8332433018413031,
                    -0.339689528169233
                ],
                [
                    -1.5403600633440686,
                    -1.32596154029189,
                    0.21375449618458112,
                    -0.4371556729231747
                ]
            ],
            "Uo": [
                [
                    1.1551217487590313,
                    -0.7623428040675431,
                    0.7839246591567033,
                    0.16557188477136178
                ],
                [
                    1.9807727457379496,
                    0.5451665974493722,
                    -0.44896720797221673,
                    -2.450934474212332
                ],
                [
                    0.8756796071740222,
                    1.4640001663284024,
                    -0.25987252531383903,
                    -0.943067267807132
                ],
                [
                    -0.36101903877535235,
                    -1.0849385504348328,
                    0.03877410170768728,
                    -0.8618226326000957
                ]
            ],
            "Wf": [
                [
                    1.792184383119682,
                    0.6506644933370538,
                    1.272752615280222,
                    1.7381520237992354
                ],
                [
                    1.4398376830222777,
                    0.6809430478685924,
                    -0.7219624988521255,
                    0.018231201452244234
                ],
                [
                    -1.1799741523956253,
                    1.127135482248621,
                    -0.27756407256249144,
                    0.371598686803167
                ],
                [
                    0.7046215405816197,
                    -0.620364576905199,
                    -0.35880130062463744,
                    0.08828218192948446
                ]
            ],
            "Wi": [
                [
                    0.6515337576996634,
                    -0.8659023460757673,
                    -0.8743827906182862,
                    0.6493110588888119
                ],
                [
                    -0.22181054220831975,
                    0.5394844064872205,
                    -1.7347101822301316,
                    -2.216852200824571
                ],
                [
                    0.8445052471121487,
                    -0.1246735028383949,
                    -1.3343818798788059,
                    0.3301021886995212
                ],
                [
                    -0.16653017580065374,
                    -0.6827557765858275,
                    -1.3436115653017207,
                    0.570563120999711
                ]
            ],
            "Wc": [
                [
                    -0.5586258537960472,
                    -0.7099408289388558,
                    -2.068442879918017,
                    -0.6329226638485582
                ],
                [
                    0.02812333243776067,
                    0.147964498131279,
                    0.8156130231132952,
                    0.5816874935939796
                ],
                [
                    -1.0889638550481773,
                    -1.7775649346197675,
                    -1.4602507554185509,
                    1.970488851815654
                ],
                [
                    -0.5624058250170882,
                    0.8809320221914511,
                    -0.027212837887625775,
                    0.2189433172268442
                ]
            ],
            "Wo": [
                [
                    -0.5584886357377413,
                    0.657626056875902,
                    -0.5581681775452589,
                    -0.22635698832869738
                ],
                [
                    -0.6453865555323292,
                    0.3091391060747227,
                    -1.4054893128711723,
                    -0.4996176456178735
                ],
                [
                    0.20551992364798452,
                    0.5721302693398459,
                    1.055009827323473,
                    0.25267837472261634
                ],
                [
                    -0.9022927942508003,
                    -0.08708646451920836,
                    1.954917836393822,
                    -0.24708780522983717
                ]
            ],
            "Bf": [
                0.7247818570054455,
                -0.9506342895404224,
                -1.207158837844937,
                0.027056699528437117
            ],
            "Bi": [
                -1.364013365129309,
                -0.15476339200108039,
                -1.3909571295014522,
                0.10469610790080985
            ],
            "Bc": [
                -0.6559074675567346,
                0.4733594841821492,
                1.0214926820317436,
                0.220113628288334
            ],
            "Bo": [
                -1.0351881176775835,
                0.1323022456845659,
                1.1210291595010964,
                0.4655479051410331
            ],
            "V": [
                [
                    0.08462992305182972,
                    -1.044051654913086,
                    1.1694653994446482,
                    -0.08783084228117108
                ],
                [
                    0.8362077516949751,
                    0.5134244323819057,
                    -0.13467160817249038,
                    0.3200878429315804
                ],
                [
                    -0.3623178101315102,
                    0.7347600484562787,
                    0.16720826416692725,
                    1.0410346527268364
                ],
                [
                    -0.005955228495340854,
                    -0.8883582621534789,
                    -0.6798122415377323,
                    -0.498478026055064
                ]
            ],
            "bias": [
                -0.5591408023241868,
                -0.18040146972320978,
                -0.2664797266002,
                0.4088500381544689
            ]
        },
        {
            "name": "Dense",
            "n_input": 1,
            "n_output": 1,
            "activation": "sigmoid",
            "weights": [
                [
                    2.5857447774419384
                ]
            ],
            "biases": [
                -0.8994990279847147
            ]
        }
    ]
}