{
    "name": "Seq_model",
    "layers": [
        {
            "name": "LSTM",
            "n_input": 6,
            "n_hiden": 6,
            "timestep": 32,
            "Uf": [
                [
                    0.15611034567522047,
                    -1.925292995132621,
                    1.3255806510821355,
                    0.7057678185836976,
                    0.4841767384121718,
                    0.1657283065690092
                ],
                [
                    -0.15496481470519274,
                    -0.6689652967364389,
                    0.11934956913603567,
                    1.0966887513689219,
                    -0.42225848647694764,
                    -0.23860775692654573
                ],
                [
                    0.3184689196874969,
                    0.3155414210566842,
                    0.16853275094258427,
                    0.20654660169513586,
                    -0.22091416276229536,
                    -0.5739307242197632
                ],
                [
                    1.223273949017338,
                    0.44101623974654963,
                    -0.3613025532249697,
                    0.6101745034512975,
                    -0.6607419150242859,
                    -0.11433220163984689
                ],
                [
                    -0.5111240853148424,
                    0.35383498242151584,
                    -1.8882350540905661,
                    0.5551434257542849,
                    2.4476835646287936,
                    0.5181570965529309
                ],
                [
                    0.858010603641418,
                    -0.3561359969055965,
                    0.9688841996702827,
                    0.4013049183884859,
                    0.2634021268749955,
                    -0.1265383725848592
                ]
            ],
            "Ui": [
                [
                    -0.8621060325502964,
                    -0.4910832443887906,
                    0.7422122401863661,
                    0.5353880154547282,
                    -0.03161922403744222,
                    0.742223473807601
                ],
                [
                    -0.9977167204319778,
                    1.2238968271907629,
                    0.014342050850772019,
                    0.580143218671209,
                    -0.9280380112996347,
                    1.136156474240629
                ],
                [
                    0.564086545231889,
                    0.31363769789186635,
                    1.3244226812883773,
                    0.8424465264895161,
                    0.10255667849475977,
                    -0.9106567213033695
                ],
                [
                    -0.0305065839513681,
                    -0.9353858889556761,
                    -0.8680109581559368,
                    0.7286981686553328,
                    0.9700636804771271,
                    0.44284017103456325
                ],
                [
                    0.8620296922298722,
                    0.5432019330047393,
                    0.5303117259361728,
                    0.4273143798347614,
                    0.2702764130484342,
                    0.8955555625627974
                ],
                [
                    -0.3434913163592848,
                    -0.8821076425564217,
                    -0.31643256952438176,
                    1.2461764718452992,
                    -0.7183544539998772,
                    -0.42333408101958864
                ]
            ],
            "Uc": [
                [
                    -0.19811044152873705,
                    1.0651179741971293,
                    0.45611779060158547,
                    1.7040168537466902,
                    0.5816724207085988,
                    1.3253944968424287
                ],
                [
                    -0.08646499548153838,
                    0.5902713923908881,
                    0.453055094675549,
                    1.3670303765565897,
                    -0.3585087196770328,
                    -0.3097229993021541
                ],
                [
                    -1.1671222712939089,
                    -0.9359178423339665,
                    1.3448816229875653,
                    -1.0249566411036786,
                    0.09843878245194428,
                    1.408423801334111
                ],
                [
                    -1.1755625773865868,
                    0.19904364186608348,
                    -0.7080120782303647,
                    1.0284351109444085,
                    -0.3538918133922592,
                    -0.4223016322469906
                ],
                [
                    -0.3750422248172966,
                    0.2032261997936812,
                    -0.9461860192906633,
                    0.6209732958895341,
                    -1.3788434663153586,
                    1.2952133941084956
                ],
                [
                    -0.09027734170634244,
                    0.6209917416080267,
                    -0.815159487921218,
                    0.009350479172380022,
                    0.7382834591233314,
                    -1.6475441617151256
                ]
            ],
            "Uo": [
                [
                    -1.731409241691631,
                    -1.003586832957396,
                    -0.649196418774808,
                    0.7315912113193277,
                    0.6872239563035683,
                    0.2716784261199987
                ],
                [
                    0.06084790024590956,
                    0.5402394044725818,
                    0.18583775578790557,
                    0.48141016288948024,
                    -0.11140539971288071,
                    -0.3390087851598071
                ],
                [
                    0.5854848891953573,
                    0.39101552921175775,
                    1.390886165907129,
                    0.6929696697420439,
                    -0.7298751519596797,
                    1.1735981983577655
                ],
                [
                    -1.0688650650296279,
                    1.1718919906926417,
                    0.06417249239277095,
                    1.9323472011001135,
                    0.9311689973616196,
                    -0.24741372704366899
                ],
                [
                    -1.0378737398907452,
                    1.8377666662994456,
                    0.08447608881407838,
                    0.12141543838800756,
                    1.3689070150658063,
                    0.5532806611054254
                ],
                [
                    -1.0124689610413165,
                    -0.15967396018287094,
                    0.649336952661373,
                    0.48888862161810065,
                    1.684722314968485,
                    1.2345542103020717
                ]
            ],
            "Wf": [
                [
                    0.1560861044500927,
                    -0.8650525050514464,
                    -2.3887607705081564,
                    0.5813117408326997,
                    -0.09999362706903865,
                    -0.2818383855413039
                ],
                [
                    -1.360886649049154,
                    -1.6951035710718056,
                    0.26662526810223863,
                    1.1166361597276784,
                    0.23105274016179675,
                    0.49366874431242275
                ],
                [
                    0.22540848589300008,
                    0.13890619824750125,
                    0.38534132459428116,
                    -1.1461571611179409,
                    -0.9764828523631975,
                    -0.030231910132062393
                ],
                [
                    0.03981945869171591,
                    -2.2880960226444125,
                    -1.1143254936700773,
                    -0.2596053288007022,
                    1.0137192810745366,
                    -0.5773901539478696
                ],
                [
                    0.1818267826433581,
                    0.33007406862306427,
                    -1.0094745364376485,
                    -0.08840808259296525,
                    -0.7085471551074923,
                    -1.501095468275815
                ],
                [
                    -0.31501148425748937,
                    -0.44409676871039344,
                    0.08088192191849516,
                    -0.41191324001693125,
                    -1.7816213509395158,
                    0.8740229425949447
                ]
            ],
            "Wi": [
                [
                    -1.2916861743736776,
                    -0.30723126086924635,
                    -0.6358267069923639,
                    0.5629510920499831,
                    -0.5832929358555015,
                    0.008214779799853479
                ],
                [
                    0.30193811548342214,
                    0.05243877290900082,
                    -0.2804778872944009,
                    -1.4266086871154897,
                    0.43874545746498483,
                    1.1758341849618172
                ],
                [
                    -1.3512887185297988,
                    -0.13266644166351496,
                    0.47370114087501547,
                    0.9732576685006528,
                    -0.3231625473189331,
                    1.279941147001799
                ],
                [
                    0.46918476841858087,
                    0.5834404083134832,
                    -0.4335311816270733,
                    -1.0290003115659931,
                    1.6198515401125004,
                    -1.0202631036152434
                ],
                [
                    0.6035655832345795,
                    0.4549913602817194,
                    1.5329994191844902,
                    1.4180370253174668,
                    -0.567203585797602,
                    0.8202019745291085
                ],
                [
                    0.34300425776011284,
                    0.0051659682202865875,
                    0.21832211702118678,
                    -0.2821702111925801,
                    -1.0082609104141353,
                    0.53249380559779
                ]
            ],
            "Wc": [
                [
                    -0.2350638441725197,
                    -0.5522739900662517,
                    -0.7072080551936606,
                    1.2749610835036582,
                    -1.4451785309410896,
                    0.521438768371162
                ],
                [
                    -0.5678447726471627,
                    -0.30143810573238927,
                    -2.0046149916870877,
                    -0.9842264835465973,
                    0.3560868227572923,
                    2.08865653474822
                ],
                [
                    -0.02891521207461435,
                    -0.09350665188452137,
                    0.36691699939284483,
                    -0.4292186229531495,
                    -0.8188017151948687,
                    -0.7640812368121732
                ],
                [
                    -0.8379991140549928,
                    -0.6820027156776985,
                    0.7240804367235766,
                    0.2364859747099069,
                    0.5015253827984515,
                    0.11332811442607697
                ],
                [
                    0.10857128042631772,
                    -2.314027512252872,
                    -0.2908827617904013,
                    -0.6096649334515484,
                    1.014390473972826,
                    -0.3683234604066266
                ],
                [
                    1.0750119316545215,
                    -2.2450207577816954,
                    0.5861618611218948,
                    0.24661252776205547,
                    0.6946579752526265,
                    0.0011049375144875212
                ]
            ],
            "Wo": [
                [
                    0.6248658652102639,
                    0.8403225517959686,
                    -0.6564085793062548,
                    0.08485179537621891,
                    -0.6225897343894887,
                    0.44383408354262505
                ],
                [
                    0.8262538295975626,
                    -0.3738862922145515,
                    -1.264390630568098,
                    -1.2817762682004277,
                    -0.745278465689102,
                    -0.9309096199589116
                ],
                [
                    -0.5431086938149734,
                    0.5547015470978491,
                    -0.21558340645359816,
                    0.4692855303246833,
                    0.42205833485427424,
                    0.633797724069822
                ],
                [
                    1.1232908642196582,
                    -1.735603172851529,
                    -1.935271837477546,
                    2.020520896858857,
                    0.18336580435843242,
                    2.1426159825782496
                ],
                [
                    -0.30890069122827185,
                    -0.47088238251052766,
                    -1.7304920713097676,
                    0.470827108093682,
                    -0.5395296241446708,
                    0.5810745916671856
                ],
                [
                    0.2780661081807178,
                    -0.7288172133067414,
                    -0.5121469258700425,
                    -1.4601472872034416,
                    -1.8424122138314252,
                    0.9441895382278984
                ]
            ],
            "Bf": [
                0.11950545763367305,
                -0.45948888619370404,
                0.5055381836856573,
                -0.9137543298697322,
                -2.2874498720221466,
                0.21950594667785975
            ],
            "Bi": [
                1.9415299945918052,
                -2.3963225643023724,
                -0.8147320041888466,
                -0.5422283004510426,
                0.022294873132345648,
                2.0647410139325806
            ],
            "Bc": [
                0.9907873024182151,
                1.9371940567778165,
                -0.9057577502601009,
                1.3068708521570476,
                -1.5374828033724932,
                -0.06794858536371713
            ],
            "Bo": [
                -0.457814191646808,
                -1.0190823945793361,
                -0.4662731350326359,
                0.037926260127883096,
                2.31690137534519,
                -0.19937013944716372
            ]
        },
        {
            "name": "Dense",
            "n_input": 6,
            "n_output": 6,
            "activation": "linear",
            "weights": [
                [
                    -1.2473415903577802,
                    0.33572030861283897,
                    -0.21353980948321594,
                    -0.7521011100599643,
                    0.49547771295177695,
                    -1.0049686447167907
                ],
                [
                    -1.036040129355862,
                    -1.5282845502923748,
                    -0.014441914341353692,
                    0.2200822457222959,
                    -0.6569043582421749,
                    -0.2493522524335258
                ],
                [
                    0.7639964326495207,
                    -0.08216289866680981,
                    1.183367485660809,
                    -0.2868246033591023,
                    0.8076720042434666,
                    -0.26938181913904097
                ],
                [
                    0.6575756823099582,
                    0.7946965767637143,
                    0.007792671335310543,
                    0.3878149996106059,
                    1.1087105585459582,
                    0.26295264026851445
                ],
                [
                    1.5103615488386002,
                    -1.3493843734789415,
                    0.2010300157311704,
                    2.378193743890462,
                    -1.1110737745689374,
                    0.1838651943758586
                ],
                [
                    -0.0014193306490072892,
                    1.4245215981937505,
                    1.6023536501109177,
                    0.3437911978627029,
                    -0.3679833161541276,
                    -0.3912267600659232
                ]
            ],
            "biases": [
                1.2136880494490307,
                0.6631496078472471,
                -0.7637095849161516,
                0.7129837116403612,
                1.4546716105522888,
                1.634606306287863
            ]
        }
    ]
}